digraph Tree {
node [shape=box] ;
0 [label="score.left <= 2.5\ngini = 0.4811\nsamples = 144\nvalue = [58, 86]"] ;
1 [label="hr.post.challenge  <= 12.9667\ngini = 0.1356\nsamples = 41\nvalue = [3, 38]"] ;
0 -> 1 [labeldistance=2.5, labelangle=45, headlabel="True"] ;
2 [label="gini = 0.0\nsamples = 1\nvalue = [1, 0]"] ;
1 -> 2 ;
3 [label="pch.weight <= 2.4396\ngini = 0.095\nsamples = 40\nvalue = [2, 38]"] ;
1 -> 3 ;
4 [label="gini = 0.0\nsamples = 23\nvalue = [0, 23]"] ;
3 -> 4 ;
5 [label="pch.weight <= 2.6928\ngini = 0.2076\nsamples = 17\nvalue = [2, 15]"] ;
3 -> 5 ;
6 [label="gini = 0.0\nsamples = 1\nvalue = [1, 0]"] ;
5 -> 6 ;
7 [label="weight <= 3.67\ngini = 0.1172\nsamples = 16\nvalue = [1, 15]"] ;
5 -> 7 ;
8 [label="weight <= 3.655\ngini = 0.375\nsamples = 4\nvalue = [1, 3]"] ;
7 -> 8 ;
9 [label="gini = 0.0\nsamples = 3\nvalue = [0, 3]"] ;
8 -> 9 ;
10 [label="gini = 0.0\nsamples = 1\nvalue = [1, 0]"] ;
8 -> 10 ;
11 [label="gini = 0.0\nsamples = 12\nvalue = [0, 12]"] ;
7 -> 11 ;
12 [label="pch.weight <= 1.9457\ngini = 0.4977\nsamples = 103\nvalue = [55, 48]"] ;
0 -> 12 [labeldistance=2.5, labelangle=-45, headlabel="False"] ;
13 [label="score.left <= 6.5\ngini = 0.4938\nsamples = 72\nvalue = [32, 40]"] ;
12 -> 13 ;
14 [label="weight.challenge <= 3.775\ngini = 0.4486\nsamples = 53\nvalue = [18, 35]"] ;
13 -> 14 ;
15 [label="pch.weight <= -0.1553\ngini = 0.5\nsamples = 22\nvalue = [11, 11]"] ;
14 -> 15 ;
16 [label="weight <= 3.265\ngini = 0.4567\nsamples = 17\nvalue = [6, 11]"] ;
15 -> 16 ;
17 [label="gini = 0.0\nsamples = 6\nvalue = [0, 6]"] ;
16 -> 17 ;
18 [label="pch.weight <= -2.5499\ngini = 0.4959\nsamples = 11\nvalue = [6, 5]"] ;
16 -> 18 ;
19 [label="gini = 0.0\nsamples = 5\nvalue = [5, 0]"] ;
18 -> 19 ;
20 [label="weight <= 3.335\ngini = 0.2778\nsamples = 6\nvalue = [1, 5]"] ;
18 -> 20 ;
21 [label="gini = 0.0\nsamples = 1\nvalue = [1, 0]"] ;
20 -> 21 ;
22 [label="gini = 0.0\nsamples = 5\nvalue = [0, 5]"] ;
20 -> 22 ;
23 [label="gini = 0.0\nsamples = 5\nvalue = [5, 0]"] ;
15 -> 23 ;
24 [label="hr.post.challenge  <= 13.5\ngini = 0.3496\nsamples = 31\nvalue = [7, 24]"] ;
14 -> 24 ;
25 [label="pch.weight <= 0.3934\ngini = 0.4938\nsamples = 9\nvalue = [4, 5]"] ;
24 -> 25 ;
26 [label="gini = 0.0\nsamples = 4\nvalue = [0, 4]"] ;
25 -> 26 ;
27 [label="weight <= 5.5\ngini = 0.32\nsamples = 5\nvalue = [4, 1]"] ;
25 -> 27 ;
28 [label="gini = 0.0\nsamples = 4\nvalue = [4, 0]"] ;
27 -> 28 ;
29 [label="gini = 0.0\nsamples = 1\nvalue = [0, 1]"] ;
27 -> 29 ;
30 [label="hr.post.challenge  <= 23.8333\ngini = 0.2355\nsamples = 22\nvalue = [3, 19]"] ;
24 -> 30 ;
31 [label="gini = 0.0\nsamples = 15\nvalue = [0, 15]"] ;
30 -> 31 ;
32 [label="pch.weight <= -4.8247\ngini = 0.4898\nsamples = 7\nvalue = [3, 4]"] ;
30 -> 32 ;
33 [label="pch.weight <= -7.6354\ngini = 0.32\nsamples = 5\nvalue = [1, 4]"] ;
32 -> 33 ;
34 [label="pch.weight <= -7.9321\ngini = 0.5\nsamples = 2\nvalue = [1, 1]"] ;
33 -> 34 ;
35 [label="gini = 0.0\nsamples = 1\nvalue = [0, 1]"] ;
34 -> 35 ;
36 [label="gini = 0.0\nsamples = 1\nvalue = [1, 0]"] ;
34 -> 36 ;
37 [label="gini = 0.0\nsamples = 3\nvalue = [0, 3]"] ;
33 -> 37 ;
38 [label="gini = 0.0\nsamples = 2\nvalue = [2, 0]"] ;
32 -> 38 ;
39 [label="hr.post.challenge  <= 14.1667\ngini = 0.3878\nsamples = 19\nvalue = [14, 5]"] ;
13 -> 39 ;
40 [label="pch.weight <= -1.2098\ngini = 0.32\nsamples = 5\nvalue = [1, 4]"] ;
39 -> 40 ;
41 [label="pch.weight <= -2.185\ngini = 0.5\nsamples = 2\nvalue = [1, 1]"] ;
40 -> 41 ;
42 [label="gini = 0.0\nsamples = 1\nvalue = [0, 1]"] ;
41 -> 42 ;
43 [label="gini = 0.0\nsamples = 1\nvalue = [1, 0]"] ;
41 -> 43 ;
44 [label="gini = 0.0\nsamples = 3\nvalue = [0, 3]"] ;
40 -> 44 ;
45 [label="weight <= 5.13\ngini = 0.1327\nsamples = 14\nvalue = [13, 1]"] ;
39 -> 45 ;
46 [label="gini = 0.0\nsamples = 12\nvalue = [12, 0]"] ;
45 -> 46 ;
47 [label="weight.challenge <= 5.745\ngini = 0.5\nsamples = 2\nvalue = [1, 1]"] ;
45 -> 47 ;
48 [label="gini = 0.0\nsamples = 1\nvalue = [0, 1]"] ;
47 -> 48 ;
49 [label="gini = 0.0\nsamples = 1\nvalue = [1, 0]"] ;
47 -> 49 ;
50 [label="pch.weight <= 4.2033\ngini = 0.3829\nsamples = 31\nvalue = [23, 8]"] ;
12 -> 50 ;
51 [label="pch.weight <= 2.0305\ngini = 0.095\nsamples = 20\nvalue = [19, 1]"] ;
50 -> 51 ;
52 [label="score.left <= 4.5\ngini = 0.4444\nsamples = 3\nvalue = [2, 1]"] ;
51 -> 52 ;
53 [label="gini = 0.0\nsamples = 1\nvalue = [0, 1]"] ;
52 -> 53 ;
54 [label="gini = 0.0\nsamples = 2\nvalue = [2, 0]"] ;
52 -> 54 ;
55 [label="gini = 0.0\nsamples = 17\nvalue = [17, 0]"] ;
51 -> 55 ;
56 [label="score.left <= 6.5\ngini = 0.4628\nsamples = 11\nvalue = [4, 7]"] ;
50 -> 56 ;
57 [label="hr.post.challenge  <= 18.6233\ngini = 0.2188\nsamples = 8\nvalue = [1, 7]"] ;
56 -> 57 ;
58 [label="gini = 0.0\nsamples = 6\nvalue = [0, 6]"] ;
57 -> 58 ;
59 [label="hr.post.challenge  <= 18.7483\ngini = 0.5\nsamples = 2\nvalue = [1, 1]"] ;
57 -> 59 ;
60 [label="gini = 0.0\nsamples = 1\nvalue = [1, 0]"] ;
59 -> 60 ;
61 [label="gini = 0.0\nsamples = 1\nvalue = [0, 1]"] ;
59 -> 61 ;
62 [label="gini = 0.0\nsamples = 3\nvalue = [3, 0]"] ;
56 -> 62 ;
}