digraph Tree {
node [shape=box] ;
0 [label="X[1] <= -0.6791\ngini = 0.4811\nsamples = 144\nvalue = [58, 86]"] ;
1 [label="X[3] <= -1.0604\ngini = 0.1356\nsamples = 41\nvalue = [3, 38]"] ;
0 -> 1 [labeldistance=2.5, labelangle=45, headlabel="True"] ;
2 [label="gini = 0.0\nsamples = 1\nvalue = [1, 0]"] ;
1 -> 2 ;
3 [label="X[0] <= -0.1387\ngini = 0.095\nsamples = 40\nvalue = [2, 38]"] ;
1 -> 3 ;
4 [label="X[4] <= -0.0747\ngini = 0.2076\nsamples = 17\nvalue = [2, 15]"] ;
3 -> 4 ;
5 [label="X[2] <= 1.0617\ngini = 0.1172\nsamples = 16\nvalue = [1, 15]"] ;
4 -> 5 ;
6 [label="gini = 0.0\nsamples = 14\nvalue = [0, 14]"] ;
5 -> 6 ;
7 [label="X[2] <= 1.2181\ngini = 0.5\nsamples = 2\nvalue = [1, 1]"] ;
5 -> 7 ;
8 [label="gini = 0.0\nsamples = 1\nvalue = [1, 0]"] ;
7 -> 8 ;
9 [label="gini = 0.0\nsamples = 1\nvalue = [0, 1]"] ;
7 -> 9 ;
10 [label="gini = 0.0\nsamples = 1\nvalue = [1, 0]"] ;
4 -> 10 ;
11 [label="gini = 0.0\nsamples = 23\nvalue = [0, 23]"] ;
3 -> 11 ;
12 [label="X[2] <= 0.502\ngini = 0.4977\nsamples = 103\nvalue = [55, 48]"] ;
0 -> 12 [labeldistance=2.5, labelangle=-45, headlabel="False"] ;
13 [label="X[1] <= 1.0674\ngini = 0.4938\nsamples = 72\nvalue = [32, 40]"] ;
12 -> 13 ;
14 [label="X[0] <= -0.6004\ngini = 0.4486\nsamples = 53\nvalue = [18, 35]"] ;
13 -> 14 ;
15 [label="X[2] <= 0.0203\ngini = 0.5\nsamples = 22\nvalue = [11, 11]"] ;
14 -> 15 ;
16 [label="X[2] <= -0.1507\ngini = 0.4567\nsamples = 17\nvalue = [6, 11]"] ;
15 -> 16 ;
17 [label="X[4] <= -1.219\ngini = 0.4959\nsamples = 11\nvalue = [6, 5]"] ;
16 -> 17 ;
18 [label="gini = 0.0\nsamples = 3\nvalue = [0, 3]"] ;
17 -> 18 ;
19 [label="X[2] <= -0.5287\ngini = 0.375\nsamples = 8\nvalue = [6, 2]"] ;
17 -> 19 ;
20 [label="gini = 0.0\nsamples = 5\nvalue = [5, 0]"] ;
19 -> 20 ;
21 [label="X[1] <= 0.6308\ngini = 0.4444\nsamples = 3\nvalue = [1, 2]"] ;
19 -> 21 ;
22 [label="gini = 0.0\nsamples = 2\nvalue = [0, 2]"] ;
21 -> 22 ;
23 [label="gini = 0.0\nsamples = 1\nvalue = [1, 0]"] ;
21 -> 23 ;
24 [label="gini = 0.0\nsamples = 6\nvalue = [0, 6]"] ;
16 -> 24 ;
25 [label="gini = 0.0\nsamples = 5\nvalue = [5, 0]"] ;
15 -> 25 ;
26 [label="X[3] <= -0.9457\ngini = 0.3496\nsamples = 31\nvalue = [7, 24]"] ;
14 -> 26 ;
27 [label="X[2] <= 0.1461\ngini = 0.4938\nsamples = 9\nvalue = [4, 5]"] ;
26 -> 27 ;
28 [label="gini = 0.0\nsamples = 4\nvalue = [0, 4]"] ;
27 -> 28 ;
29 [label="X[0] <= 1.9675\ngini = 0.32\nsamples = 5\nvalue = [4, 1]"] ;
27 -> 29 ;
30 [label="gini = 0.0\nsamples = 4\nvalue = [4, 0]"] ;
29 -> 30 ;
31 [label="gini = 0.0\nsamples = 1\nvalue = [0, 1]"] ;
29 -> 31 ;
32 [label="X[3] <= 1.2767\ngini = 0.2355\nsamples = 22\nvalue = [3, 19]"] ;
26 -> 32 ;
33 [label="gini = 0.0\nsamples = 15\nvalue = [0, 15]"] ;
32 -> 33 ;
34 [label="X[2] <= -1.0503\ngini = 0.4898\nsamples = 7\nvalue = [3, 4]"] ;
32 -> 34 ;
35 [label="X[2] <= -1.6947\ngini = 0.32\nsamples = 5\nvalue = [1, 4]"] ;
34 -> 35 ;
36 [label="X[4] <= -0.5414\ngini = 0.5\nsamples = 2\nvalue = [1, 1]"] ;
35 -> 36 ;
37 [label="gini = 0.0\nsamples = 1\nvalue = [0, 1]"] ;
36 -> 37 ;
38 [label="gini = 0.0\nsamples = 1\nvalue = [1, 0]"] ;
36 -> 38 ;
39 [label="gini = 0.0\nsamples = 3\nvalue = [0, 3]"] ;
35 -> 39 ;
40 [label="gini = 0.0\nsamples = 2\nvalue = [2, 0]"] ;
34 -> 40 ;
41 [label="X[3] <= -0.8023\ngini = 0.3878\nsamples = 19\nvalue = [14, 5]"] ;
13 -> 41 ;
42 [label="X[2] <= -0.2215\ngini = 0.32\nsamples = 5\nvalue = [1, 4]"] ;
41 -> 42 ;
43 [label="X[4] <= 0.5276\ngini = 0.5\nsamples = 2\nvalue = [1, 1]"] ;
42 -> 43 ;
44 [label="gini = 0.0\nsamples = 1\nvalue = [1, 0]"] ;
43 -> 44 ;
45 [label="gini = 0.0\nsamples = 1\nvalue = [0, 1]"] ;
43 -> 45 ;
46 [label="gini = 0.0\nsamples = 3\nvalue = [0, 3]"] ;
42 -> 46 ;
47 [label="X[0] <= 1.3183\ngini = 0.1327\nsamples = 14\nvalue = [13, 1]"] ;
41 -> 47 ;
48 [label="gini = 0.0\nsamples = 12\nvalue = [12, 0]"] ;
47 -> 48 ;
49 [label="X[2] <= -0.5704\ngini = 0.5\nsamples = 2\nvalue = [1, 1]"] ;
47 -> 49 ;
50 [label="gini = 0.0\nsamples = 1\nvalue = [1, 0]"] ;
49 -> 50 ;
51 [label="gini = 0.0\nsamples = 1\nvalue = [0, 1]"] ;
49 -> 51 ;
52 [label="X[2] <= 1.0196\ngini = 0.3829\nsamples = 31\nvalue = [23, 8]"] ;
12 -> 52 ;
53 [label="X[2] <= 0.5215\ngini = 0.095\nsamples = 20\nvalue = [19, 1]"] ;
52 -> 53 ;
54 [label="X[3] <= -1.021\ngini = 0.4444\nsamples = 3\nvalue = [2, 1]"] ;
53 -> 54 ;
55 [label="gini = 0.0\nsamples = 2\nvalue = [2, 0]"] ;
54 -> 55 ;
56 [label="gini = 0.0\nsamples = 1\nvalue = [0, 1]"] ;
54 -> 56 ;
57 [label="gini = 0.0\nsamples = 17\nvalue = [17, 0]"] ;
53 -> 57 ;
58 [label="X[1] <= 1.0674\ngini = 0.4628\nsamples = 11\nvalue = [4, 7]"] ;
52 -> 58 ;
59 [label="X[3] <= 0.1562\ngini = 0.2188\nsamples = 8\nvalue = [1, 7]"] ;
58 -> 59 ;
60 [label="gini = 0.0\nsamples = 6\nvalue = [0, 6]"] ;
59 -> 60 ;
61 [label="X[2] <= 1.1719\ngini = 0.5\nsamples = 2\nvalue = [1, 1]"] ;
59 -> 61 ;
62 [label="gini = 0.0\nsamples = 1\nvalue = [1, 0]"] ;
61 -> 62 ;
63 [label="gini = 0.0\nsamples = 1\nvalue = [0, 1]"] ;
61 -> 63 ;
64 [label="gini = 0.0\nsamples = 3\nvalue = [3, 0]"] ;
58 -> 64 ;
}